digraph Tree {
node [shape=box, style="filled", color="black"] ;
0 [label="Variance <= 0.76\ngini = 0.494\nsamples = 1097\nvalue = [611, 486]", fillcolor="#fae5d6"] ;
1 [label="Skewness <= 5.161\ngini = 0.36\nsamples = 590\nvalue = [139, 451]", fillcolor="#76bbed"] ;
0 -> 1 [labeldistance=2.5, labelangle=45, headlabel="True"] ;
2 [label="Variance <= 0.32\ngini = 0.168\nsamples = 464\nvalue = [43, 421]", fillcolor="#4da7e8"] ;
1 -> 2 ;
3 [label="(...)", fillcolor="#C0C0C0"] ;
2 -> 3 ;
22 [label="(...)", fillcolor="#C0C0C0"] ;
2 -> 22 ;
27 [label="Variance <= -3.368\ngini = 0.363\nsamples = 126\nvalue = [96, 30]", fillcolor="#eda877"] ;
1 -> 27 ;
28 [label="(...)", fillcolor="#C0C0C0"] ;
27 -> 28 ;
31 [label="(...)", fillcolor="#C0C0C0"] ;
27 -> 31 ;
34 [label="Curtosis <= -4.441\ngini = 0.129\nsamples = 507\nvalue = [472, 35]", fillcolor="#e78a48"] ;
0 -> 34 [labeldistance=2.5, labelangle=-45, headlabel="False"] ;
35 [label="Skewness <= 7.15\ngini = 0.397\nsamples = 22\nvalue = [6, 16]", fillcolor="#83c2ef"] ;
34 -> 35 ;
36 [label="(...)", fillcolor="#C0C0C0"] ;
35 -> 36 ;
37 [label="(...)", fillcolor="#C0C0C0"] ;
35 -> 37 ;
38 [label="Variance <= 1.744\ngini = 0.075\nsamples = 485\nvalue = [466, 19]", fillcolor="#e68641"] ;
34 -> 38 ;
39 [label="(...)", fillcolor="#C0C0C0"] ;
38 -> 39 ;
48 [label="(...)", fillcolor="#C0C0C0"] ;
38 -> 48 ;
}