digraph Tree {
node [shape=box, style="filled", color="black"] ;
0 [label="Variance <= 0.312\ngini = 0.494\nsamples = 1097\nvalue = [609, 488]", fillcolor="#fae6d8"] ;
1 [label="Skewness <= 5.865\ngini = 0.323\nsamples = 533\nvalue = [108, 425]", fillcolor="#6bb6ec"] ;
0 -> 1 [labeldistance=2.5, labelangle=45, headlabel="True"] ;
2 [label="Curtosis <= 6.746\ngini = 0.104\nsamples = 418\nvalue = [23, 395]", fillcolor="#45a3e7"] ;
1 -> 2 ;
3 [label="(...)", fillcolor="#C0C0C0"] ;
2 -> 3 ;
8 [label="(...)", fillcolor="#C0C0C0"] ;
2 -> 8 ;
13 [label="Variance <= -3.445\ngini = 0.386\nsamples = 115\nvalue = [85, 30]", fillcolor="#eead7f"] ;
1 -> 13 ;
14 [label="(...)", fillcolor="#C0C0C0"] ;
13 -> 14 ;
17 [label="(...)", fillcolor="#C0C0C0"] ;
13 -> 17 ;
18 [label="Curtosis <= -4.443\ngini = 0.198\nsamples = 564\nvalue = [501, 63]", fillcolor="#e89152"] ;
0 -> 18 [labeldistance=2.5, labelangle=-45, headlabel="False"] ;
19 [label="Skewness <= 7.192\ngini = 0.342\nsamples = 32\nvalue = [7, 25]", fillcolor="#70b8ec"] ;
18 -> 19 ;
20 [label="(...)", fillcolor="#C0C0C0"] ;
19 -> 20 ;
21 [label="(...)", fillcolor="#C0C0C0"] ;
19 -> 21 ;
22 [label="Variance <= 1.596\ngini = 0.133\nsamples = 532\nvalue = [494, 38]", fillcolor="#e78b48"] ;
18 -> 22 ;
23 [label="(...)", fillcolor="#C0C0C0"] ;
22 -> 23 ;
38 [label="(...)", fillcolor="#C0C0C0"] ;
22 -> 38 ;
}